/*!
 * The following copyright notice may not be removed under any circumstances.
 * 
 * Copyright:
 * Generated by Fontographer 3.3
 */
Cufon.registerFont({"w":2540,"face":{"font-family":"ttf","font-weight":400,"font-style":"italic","font-stretch":"normal","units-per-em":"4096","panose-1":"2 11 114 0 0 0 0 0 0 0","ascent":"3276","descent":"-820","bbox":"-328 -3686 4690.88 967","underline-thickness":"20","underline-position":"-123","slope":"-12","unicode-range":"U+0020-U+007D"},"glyphs":{" ":{"w":2679},"!":{"d":"1241,-958r-864,0r336,-2388r864,0xm1106,0r-864,0r106,-754r864,0","w":1638},"$":{"d":"1982,-1573v102,133,180,250,232,353v68,135,97,267,72,446v-24,176,-106,340,-240,492v-134,152,-339,242,-612,270r-58,413r-729,0r58,-401r-451,0r-98,-754r794,0v108,0,190,-7,246,-22v56,-15,94,-43,94,-88v0,-47,-8,-84,-24,-110v-16,-26,-44,-67,-86,-124r-500,-671v-105,-145,-183,-265,-232,-365v-64,-132,-90,-263,-67,-438v23,-170,99,-330,225,-478v126,-148,314,-241,565,-280r50,-356r729,0r-45,340r430,0r98,753r-737,0v-108,0,-190,7,-246,21v-56,14,-87,45,-94,90v5,128,39,140,110,233","w":2458},"%":{"d":"2818,-1208v54,-409,293,-697,686,-764v325,-55,771,-45,969,112v176,140,250,365,205,652v-76,491,-332,936,-692,1162v-259,162,-634,161,-850,-35v-252,-228,-380,-657,-318,-1127xm4080,-1188v0,-233,-69,-336,-287,-336v-223,0,-351,112,-377,336v-22,191,1,415,46,570v58,199,219,229,342,89v136,-154,276,-421,276,-659xm1868,0r-475,0r1605,-3346r475,0xm324,-2630v54,-410,294,-695,684,-763v323,-56,773,-43,970,112v174,138,246,366,205,651v-27,190,-89,385,-187,584v-98,199,-230,361,-388,498v-268,232,-700,279,-966,46v-254,-223,-380,-661,-318,-1128xm1585,-2609v0,-233,-69,-336,-287,-336v-223,0,-350,112,-376,336v-23,198,-3,410,44,569v68,233,265,219,388,36v98,-146,231,-419,231,-605","w":4751},"&":{"d":"3133,-1430r-192,0r-201,1430r-1589,0v-373,0,-640,-64,-794,-196v-187,-160,-264,-340,-226,-623v52,-386,299,-719,729,-1000v-111,-111,-194,-217,-255,-315v-151,-245,-86,-602,61,-818v169,-249,498,-394,948,-394r1114,0r98,753r-901,0v-188,5,-282,-12,-376,49v-31,20,-54,57,-54,107v0,82,35,161,105,238v70,77,158,148,251,229r242,209v-246,112,-572,306,-765,496v-111,109,-189,210,-189,311v0,88,32,143,95,166v63,23,149,34,257,34r504,0r200,-1429r1045,0","w":3277},"(":{"d":"926,967v-340,-702,-473,-1390,-353,-2249v125,-893,497,-1534,938,-2138r701,356v-428,649,-682,1251,-762,1807v-19,135,-29,272,-29,413v0,450,98,935,295,1454","w":2130},")":{"d":"1290,-3420v211,456,377,949,377,1601v0,938,-293,1641,-653,2251v-106,179,-229,357,-367,535r-692,-357v446,-669,709,-1291,790,-1867v93,-662,-57,-1301,-253,-1807","w":2130},"*":{"d":"1434,-2806r503,-233r78,483r-483,102r274,349r-467,311r-196,-401r-295,401r-385,-311r364,-349r-446,-102r213,-483r434,233r16,-540r525,0","w":1966},",":{"d":"537,389r-766,0r495,-1134r766,0","w":1229},"-":{"d":"1327,-1110r-1319,0r90,-647r1319,0","w":1311},".":{"d":"840,0r-738,0r107,-754r737,0","w":1229},"\/":{"d":"385,852r-680,0r2019,-4198r680,0","w":2048},"0":{"d":"250,-1704v0,-428,86,-765,236,-1050v103,-195,273,-354,508,-479v235,-125,548,-187,939,-187v330,0,591,47,786,136v351,159,521,428,521,884v0,409,-77,663,-212,1023v-185,493,-507,971,-915,1245v-410,276,-1013,281,-1349,-57v-176,-178,-310,-399,-392,-671v-82,-272,-122,-553,-122,-844xm2151,-1488v97,-272,155,-425,155,-699v0,-301,-160,-451,-479,-451v-515,0,-664,360,-664,893v0,253,37,480,101,685v122,388,405,392,618,90v102,-145,197,-315,269,-518","w":3195},"1":{"d":"1712,-3346r-471,3346r-876,0r364,-2593r-549,0r312,-753r1220,0","w":1720},"2":{"d":"1671,-3346v255,0,438,54,547,165v132,135,188,284,158,502v-24,174,-100,345,-178,465r-949,1460r946,0r-311,754r-2109,0r1498,-2284v34,-55,79,-106,79,-170v0,-61,-26,-99,-80,-115v-54,-16,-130,-24,-228,-24r-733,0r312,-753r1048,0","w":2376},"3":{"d":"1565,-3346v317,0,542,60,676,178v162,142,224,344,192,596v-20,151,-77,284,-171,400v-94,116,-227,245,-402,386v143,141,251,274,328,396v149,234,142,590,16,845v-160,324,-482,545,-975,545r-1151,0r-98,-754r958,0v233,0,377,-64,377,-196v0,-180,-146,-332,-255,-443v-150,-153,-276,-240,-433,-368r307,-209v127,-81,237,-160,331,-238v94,-78,156,-154,156,-229v0,-103,-56,-138,-151,-149v-50,-5,-129,-7,-238,-7r-741,0r311,-753r963,0","w":2458},"4":{"d":"1663,-2118r729,0r-90,635r332,0r-107,754r-332,0r-102,729r-729,0r102,-729r-1441,0r94,-668r1114,-1949r926,0r-1074,1863r488,0","w":2621},"5":{"d":"291,-1548r352,-1798r1638,0r99,753r-1053,0r-65,340r258,0v300,0,512,67,640,199v164,169,218,408,179,702v-16,117,-53,246,-112,388v-59,142,-161,287,-308,436v-147,149,-357,274,-631,376v-274,102,-613,152,-1018,152r-98,-754v288,0,523,-26,706,-78v183,-52,315,-116,397,-193v82,-77,142,-158,142,-245v0,-117,-38,-191,-113,-227v-96,-46,-270,-51,-432,-51r-581,0","w":2458},"6":{"d":"2445,-3346r-151,177r-238,289r-272,345v-85,112,-156,212,-211,299v431,8,775,165,955,436v121,183,169,408,130,678v-30,211,-102,408,-214,588v-226,363,-656,608,-1260,608v-365,0,-636,-84,-820,-246v-228,-200,-319,-523,-258,-905v110,-688,496,-1251,870,-1710r454,-559r1015,0xm1769,-1090v18,-303,-209,-427,-499,-430r-127,0v-83,133,-148,260,-148,385v0,293,111,439,332,439v240,0,429,-174,442,-394","w":2703},"7":{"d":"2609,-3346r-1495,3346r-913,0r1163,-2593r-1118,0r311,-753r2052,0","w":2212},"8":{"d":"1343,-684v162,0,381,-51,381,-201v0,-128,-97,-274,-290,-438v-259,174,-405,319,-414,438v-12,154,171,201,323,201xm1860,-2531v0,-115,-79,-172,-238,-172v-175,0,-287,56,-287,172v0,114,74,224,221,331v188,-121,304,-231,304,-331xm550,-2110v-160,-243,-90,-639,43,-868v69,-119,191,-225,373,-312v182,-87,437,-130,763,-130v699,0,1048,221,1048,663v0,260,-67,451,-191,600v-95,114,-240,242,-432,383v143,127,251,256,333,380v158,237,143,624,27,885v-182,408,-641,583,-1277,583v-295,0,-524,-38,-692,-102v-333,-127,-473,-379,-414,-799v67,-473,394,-711,713,-947v-133,-126,-230,-239,-294,-336","w":2785},"9":{"d":"373,-754v451,-24,795,-99,1040,-331v-476,-80,-852,-267,-1056,-591v-188,-298,-164,-764,-3,-1072v214,-410,635,-672,1272,-672v792,0,1188,334,1188,1003v0,409,-94,712,-250,1050v-236,509,-622,946,-1132,1186v-294,138,-593,201,-961,181xm1815,-1810v63,-150,106,-287,110,-455v5,-227,-141,-365,-377,-365v-212,0,-395,115,-405,312v-11,234,182,366,362,432v100,37,204,61,310,76","w":2703},":":{"d":"1081,-1720r-737,0r107,-754r737,0xm840,0r-738,0r107,-754r737,0","w":1229},";":{"d":"537,389r-766,0r495,-1134r766,0xm1155,-1720r-737,0r106,-754r738,0","w":1229},"?":{"d":"1724,-3346v436,1,720,178,843,488v50,125,66,304,46,450v-25,188,-95,361,-209,519v-114,158,-258,307,-432,447r-398,318v-91,71,-136,127,-136,166r-869,0r33,-242v13,-92,66,-178,152,-264v158,-157,612,-471,766,-634v85,-90,151,-178,151,-274v0,-91,-37,-148,-107,-178v-91,-39,-243,-43,-388,-43r-754,0r299,-753r1003,0xm1298,0r-864,0r107,-754r864,0","w":2621},"A":{"d":"414,471v-229,-428,-379,-1015,-287,-1663v123,-870,576,-1527,1225,-1886v360,-199,777,-269,1323,-268r430,0r98,753v-429,8,-928,-29,-1250,76v-269,88,-465,238,-593,423v-52,75,-105,168,-164,279r872,0r95,-675r876,0r-348,2490r-876,0r147,-1061r-958,0v-44,402,28,695,188,1061","w":3113},"B":{"d":"1642,-754v215,-6,410,-10,410,-200v0,-109,-43,-216,-125,-325v-146,-195,-397,-374,-608,-482r307,-209v127,-81,238,-161,332,-239v94,-78,152,-154,156,-228v6,-104,-58,-138,-153,-149v-49,-5,-128,-7,-237,-7r-1368,0r312,-753r1581,0v317,0,542,60,676,178v162,142,225,344,192,596v-19,149,-77,282,-171,398v-94,116,-220,234,-378,355v309,246,463,531,463,856v0,227,-60,383,-167,543v-82,122,-215,222,-395,301v-180,79,-413,119,-700,119r-1613,0r348,-2490r876,0r-241,1736r503,0","w":3195},"C":{"d":"2032,0v-620,27,-1055,-181,-1356,-506v-315,-339,-517,-893,-426,-1530v113,-787,608,-1309,1524,-1310r684,0r98,753r-684,0v-259,6,-409,49,-562,207v-181,187,-244,695,-116,1009v166,407,559,655,1149,623","w":2376},"D":{"d":"156,0r348,-2490r876,0r-241,1736v334,-19,609,-189,795,-387v223,-238,403,-543,413,-964v9,-358,-219,-488,-569,-488r-1422,0r312,-753r1421,0v586,-2,962,217,1109,642v66,190,77,444,46,668v-88,641,-415,1148,-831,1486v-388,316,-907,550,-1545,550r-712,0","w":3195},"E":{"d":"2732,-2593r-1348,0r-69,496r1225,0r-312,754r-1020,0r-82,589r1438,0r-311,754r-2110,0r471,-3346r2020,0","w":2621},"F":{"d":"2695,-2593r-1311,0r-73,537r1183,0r-311,753r-979,0r-119,828v-6,133,-50,349,-12,475r-864,508v-79,-225,-74,-447,-33,-737r438,-3117r1983,0","w":2458},"G":{"d":"2105,-1536r-331,0r106,-754r1208,0r-323,2290r-713,0v-728,-4,-1296,-324,-1586,-804v-204,-338,-287,-755,-216,-1232v117,-786,608,-1310,1524,-1310r1216,0r98,753r-1216,0v-259,6,-412,46,-562,207v-113,121,-188,346,-188,604v0,382,172,705,413,873v134,94,286,147,460,155","w":3113},"H":{"d":"2830,0r-876,0r217,-1536r-922,0r-151,1061v-5,140,-52,343,-13,475r-864,508v-77,-219,-72,-455,-33,-737r439,-3117r876,0r-147,1056r921,0r148,-1056r876,0","w":3277},"I":{"d":"1032,0r-876,0r471,-3346r876,0","w":1475},"J":{"d":"1909,-3346r-361,2568v-93,632,-262,997,-674,1290v-195,138,-468,275,-817,414r-254,-684v173,-77,308,-146,408,-206v296,-177,405,-426,465,-851r250,-1778r-672,0r311,-753r1344,0","w":1884},"K":{"d":"1020,0r-877,0r471,-3346r877,0xm2269,-1872r697,1872r-1045,0r-635,-1839r1004,-1507r987,0","w":2949},"L":{"d":"1126,-754r1151,0r-311,754r-1823,0r471,-3346r877,0","w":2212},"M":{"d":"3252,0r-876,0r282,-2023r-8,0r-799,901r-536,-901r-8,0r-283,2023r-877,0r471,-3346r832,0r573,983r869,-983r831,0","w":3686},"N":{"d":"2839,0r-877,0r139,-987r-766,-1127r-8,0r-299,2114r-876,0r471,-3346r835,0r815,1138r160,-1138r877,0","w":3277},"O":{"d":"370,-851v-184,-546,-178,-1284,47,-1763v246,-524,767,-806,1557,-806v655,0,1114,181,1289,635v79,205,89,438,51,696v-76,524,-310,1057,-588,1432v-160,216,-345,391,-556,529v-422,276,-1036,275,-1387,-58v-185,-175,-322,-395,-413,-665xm2404,-2220v-5,-330,-186,-418,-536,-418v-289,0,-473,61,-582,239v-225,368,-152,1231,78,1537v71,94,146,145,233,145v105,0,213,-69,327,-203v217,-256,412,-718,468,-1128v9,-66,12,-123,12,-172","w":3277},"P":{"d":"1032,0r-876,0r348,-2490r876,0r-123,884v191,-93,372,-205,544,-336v172,-131,284,-263,284,-397v0,-111,-35,-180,-104,-208v-69,-28,-166,-46,-289,-46r-1336,0r312,-753r1360,0v467,-1,803,143,926,469v113,299,37,620,-100,869v-194,353,-504,623,-890,860v-229,141,-505,277,-829,407","w":2867},"Q":{"d":"1970,-3420v809,2,1344,273,1344,1053v0,704,-304,1216,-648,1613r459,0r-311,754r-1323,0v-260,0,-484,-75,-677,-218v-456,-338,-670,-1072,-552,-1871v129,-874,690,-1334,1708,-1331xm2400,-2220v0,-330,-186,-418,-536,-418v-298,0,-485,59,-598,239v-80,127,-129,317,-127,552v2,321,64,689,193,895v70,112,155,170,261,170v126,0,246,-77,361,-232v115,-155,215,-333,290,-539v103,-282,156,-402,156,-667","w":3277},"R":{"d":"2310,-1425v191,529,457,985,770,1425r-803,508v-415,-561,-746,-1256,-995,-2085v241,-161,522,-325,718,-518v100,-98,171,-193,171,-289v0,-88,-33,-144,-98,-170v-65,-26,-164,-39,-295,-39r-1422,0r312,-753r1613,0v323,0,554,70,693,210v166,167,236,379,200,654v-30,224,-123,420,-276,590v-153,170,-349,326,-588,467xm1032,0r-876,0r348,-2490r876,0","w":3113},"S":{"d":"2376,-2593r-738,0v-108,0,-190,7,-245,21v-55,14,-87,45,-95,90v6,127,39,139,111,233r516,676v102,133,181,250,232,353v68,135,96,267,71,446v-16,118,-60,237,-131,353v-150,247,-454,421,-880,421r-1020,0r-99,-754r795,0v107,0,189,-7,245,-22v56,-15,95,-43,95,-88v0,-47,-8,-84,-24,-110v-16,-26,-45,-67,-87,-124r-499,-671v-105,-145,-184,-266,-233,-365v-64,-129,-91,-268,-66,-438v17,-118,60,-237,131,-353v150,-247,454,-421,880,-421r942,0","w":2294},"T":{"d":"2863,-2593r-934,0r-364,2593r-877,0r365,-2593r-934,0r311,-753r2335,0"},"U":{"d":"1290,0v-747,2,-1155,-351,-1155,-1073v0,-396,76,-648,191,-965v178,-491,410,-867,690,-1308r946,0r-257,426v-191,322,-371,637,-509,1009v-87,234,-146,419,-152,670v-9,360,220,493,570,487r328,0r364,-2592r877,0r-471,3346r-1422,0","w":3113},"V":{"d":"1323,-1135r8,0r795,-2211r938,0r-1385,3346r-1028,0r-442,-3346r938,0","w":2621},"W":{"d":"3342,0r-954,0r-123,-1950r-12,0r-672,1950r-954,0r-377,-3346r958,0r90,2117r13,0r700,-2117r889,0r147,2105r13,0r643,-2105r958,0","w":4260},"X":{"d":"705,0r-996,0r1122,-1753r-577,-1593r995,0r258,921r521,-921r995,0r-1028,1593r631,1753r-996,0r-311,-1069","w":2621},"Y":{"d":"1753,-1331r-123,856v-6,133,-50,349,-12,475r-864,508v-79,-225,-74,-447,-33,-737r156,-1102r-701,-2015r995,0r287,999r565,-999r996,0"},"Z":{"d":"2724,-3346r-1520,2592r1114,0r-311,754r-2208,0r1520,-2593r-1012,0r311,-753r2106,0","w":2376},"[":{"d":"-152,750r578,-4096r1495,0r-287,647r-422,0r-397,2801r422,0r106,648r-1495,0","w":1638},"]":{"d":"-205,750r287,-648r422,0r397,-2801r-422,0r-106,-647r1495,0r-578,4096r-1495,0","w":1638},"_":{"d":"1798,750r-2048,0r90,-648r2048,0","w":2048},"`":{"d":"1270,-3346r180,655r-573,0r-213,-655r606,0","w":1556},"a":{"d":"2167,0r-791,0v-387,-2,-688,-165,-888,-380v-239,-257,-406,-654,-336,-1144v39,-277,152,-504,337,-682v185,-178,461,-268,826,-268r1200,0xm1634,-1806v-201,2,-396,-13,-534,60v-80,42,-134,132,-154,280v-40,300,74,537,242,676v81,67,177,107,287,122"},"b":{"d":"1630,-2474v558,2,910,223,910,762v0,395,-117,654,-312,944v-159,237,-363,421,-601,560v-238,139,-481,208,-730,208r-811,0r471,-3346r786,0r-122,872r409,0xm967,-668v275,-35,499,-230,621,-438v70,-117,128,-236,128,-360v0,-147,-34,-238,-98,-280v-117,-77,-307,-57,-492,-60"},"c":{"d":"1913,-1806r-533,0v-105,0,-199,20,-280,60v-81,40,-134,133,-154,280v-24,172,3,291,65,435v82,192,253,363,505,363r278,0r-291,668v-462,23,-788,-138,-1015,-380v-239,-257,-406,-654,-336,-1144v39,-277,152,-504,337,-682v185,-178,461,-268,826,-268r495,0","w":1884},"d":{"d":"2662,-3346r-471,3346r-815,0v-387,-2,-688,-165,-888,-380v-239,-257,-406,-654,-336,-1144v39,-277,152,-504,337,-682v185,-178,461,-268,826,-268r438,0r123,-872r786,0xm1659,-1806v-209,3,-416,-16,-559,60v-80,42,-134,132,-154,280v-40,300,73,538,242,676v87,71,181,116,311,122"},"e":{"d":"1851,0r-475,0v-387,-2,-688,-165,-888,-380v-239,-257,-410,-654,-336,-1144v68,-452,244,-747,607,-899v208,-87,510,-108,834,-108v229,0,405,29,531,84v207,90,317,217,317,452v0,475,-284,763,-578,982v-142,106,-309,204,-495,300v211,52,504,46,774,45xm1610,-1737v0,-121,-102,-127,-226,-127v-285,0,-447,160,-438,480v3,103,12,164,17,184v142,-68,281,-151,419,-250v138,-99,228,-194,228,-287","w":2376},"f":{"d":"479,-2474v40,-547,291,-876,881,-872r418,0r102,667r-389,0v-159,4,-214,42,-225,205r463,0r-91,647r-462,0r-258,1827r-787,0r258,-1827r-172,0r90,-647r172,0","w":1556},"g":{"d":"999,205v110,6,228,7,297,-39v45,-30,73,-83,84,-166v-513,-3,-897,-285,-1084,-648v-138,-267,-192,-527,-144,-876v38,-277,152,-504,337,-682v185,-178,461,-268,826,-268r1200,0r-344,2454v-67,427,-163,682,-489,811v-143,57,-340,81,-588,81r-873,0r-106,-667r884,0xm1634,-1806v-201,2,-396,-13,-534,60v-80,42,-134,132,-154,280v-40,300,74,537,242,676v81,67,177,107,287,122"},"h":{"d":"1606,-1614v-8,-183,-94,-181,-303,-192r-189,0r-254,1806r-786,0r471,-3346r786,0r-123,872r434,0v526,3,775,161,775,655v0,86,-10,184,-25,295r-213,1524r-786,0r196,-1409v11,-122,17,-190,17,-205"},"i":{"d":"864,0r-786,0r348,-2474r786,0xm1241,-2679r-786,0r94,-667r786,0","w":1229},"j":{"d":"1016,-524v-65,492,-230,855,-492,1146v-85,96,-186,196,-303,300r-549,-443v237,-206,415,-472,501,-757v30,-100,52,-211,69,-332r262,-1864r786,0xm1319,-2679r-787,0r95,-667r786,0","w":1311},"k":{"d":"872,0r-786,0r471,-3346r786,0xm1913,-1389r426,1389r-869,0r-401,-1364r651,-1110r856,0","w":2458},"l":{"d":"864,0r-786,0r471,-3346r786,0","w":1229},"m":{"d":"2765,-1614v0,-183,-94,-181,-303,-192r-127,0r-254,1806r-766,0r254,-1806r-471,0r-254,1806r-766,0r348,-2474r2355,0v525,3,774,162,774,655v0,91,-9,189,-24,295r-213,1524r-766,0r196,-1409v11,-108,17,-176,17,-205","w":3686},"n":{"d":"1606,-1614v-8,-183,-94,-181,-303,-192r-189,0r-254,1806r-786,0r348,-2474r1220,0v526,3,775,161,775,655v0,86,-10,184,-25,295r-213,1524r-786,0r196,-1409v11,-122,17,-190,17,-205"},"o":{"d":"1655,-2531v241,0,427,40,560,121v133,81,221,179,266,292v64,160,84,342,54,525v-105,651,-433,1230,-911,1521v-280,171,-647,202,-926,34v-420,-253,-615,-877,-530,-1555v12,-103,45,-223,100,-360v55,-137,166,-268,334,-392v168,-124,404,-186,709,-186r344,0xm1398,-756v165,-183,331,-511,331,-846v0,-175,-113,-262,-340,-262v-253,0,-396,113,-431,340v-36,240,-11,524,72,694v111,228,207,252,368,74"},"p":{"d":"1630,-2474v558,2,910,223,910,762v0,282,-63,481,-174,703v-275,550,-805,923,-1502,1066r-110,799r-787,0r467,-3330r1196,0xm967,-668v275,-35,499,-230,621,-438v70,-117,128,-236,128,-360v0,-147,-34,-238,-98,-280v-116,-76,-307,-57,-492,-60"},"q":{"d":"967,0v-566,2,-906,-230,-906,-762v0,-392,118,-656,313,-945v160,-237,364,-421,605,-559v241,-138,489,-208,745,-208r807,0r-467,3330r-786,0r119,-856r-430,0xm1651,-1806v-143,9,-252,61,-369,143v-197,138,-397,379,-397,655v0,147,35,238,99,280v121,79,317,56,507,60"},"r":{"d":"1196,-2474r-20,143v155,-129,347,-196,577,-200r-98,708v-247,9,-433,98,-557,267r-217,1556r-787,0r348,-2474r754,0","w":1638},"s":{"d":"463,-668v28,0,111,9,143,9v83,0,135,-21,135,-66v0,-38,-29,-102,-86,-193r-270,-430v-127,-214,-188,-342,-164,-557v14,-127,90,-252,212,-379v122,-127,300,-190,534,-190r659,0r107,647v-165,5,-413,-22,-534,19v-85,29,-66,114,-11,198r287,439v124,194,186,342,159,565v-28,231,-184,424,-368,522v-103,55,-214,84,-336,84r-799,0r-102,-668r434,0","w":1802},"t":{"d":"860,0v-413,-5,-658,-145,-655,-565v0,-35,3,-100,16,-193r152,-1069r-176,0r90,-647r176,0r65,-483r820,-234r-99,717r414,0r-90,647r-414,0r-135,942v2,147,35,217,172,217r311,0r-290,668r-357,0","w":1556},"u":{"d":"918,-975v-6,318,259,308,581,307r254,-1806r787,0r-349,2474r-1257,0v-578,7,-864,-261,-864,-791v0,-88,5,-168,16,-241v53,-362,262,-843,627,-1442r807,0r-154,297r-209,421v-95,203,-197,442,-231,671v-8,54,-8,91,-8,110"},"v":{"d":"1458,0r-909,0r-430,-2474r827,0r176,1585r8,0r627,-1585r828,0","w":2294},"w":{"d":"2875,0r-847,0r-156,-1495r-12,0r-574,1495r-848,0r-319,-2474r839,0r70,1667r12,0r594,-1667r742,0r127,1667r12,0r537,-1667r839,0","w":3604},"x":{"d":"1520,-2474r888,0r-782,1151r516,1323r-913,0r-180,-885r-9,0r-426,885r-913,0r885,-1323r-455,-1151r889,0r147,741r9,0","w":2130},"y":{"d":"967,852r-844,0r532,-1065r-565,-2261r934,0r193,1171r8,0r520,-1171r868,0","w":2294},"z":{"d":"2167,-2474r-1094,1806r791,0r-291,668r-1757,0r1110,-1827r-742,0r287,-647r1696,0","w":1966},"{":{"d":"389,-872v-2,-224,-95,-320,-283,-369r0,-12v277,-71,378,-222,422,-533r156,-1110v54,-272,311,-450,635,-450r676,0r-29,184v-291,85,-395,213,-442,541r-107,749v-59,363,-120,544,-450,619r0,12v207,47,295,142,295,377v0,317,-85,680,-123,991v-7,55,-13,107,-13,156v4,236,109,322,304,385r-25,184r-676,0v-289,5,-547,-175,-508,-451r156,-1114v8,-57,12,-110,12,-159","w":1638},"}":{"d":"578,-2777v-4,-238,-107,-324,-308,-385r29,-184r676,0v293,-4,543,169,504,450r-156,1110v-8,57,-12,109,-12,156v3,227,94,326,286,377r0,12v-273,61,-385,232,-426,528r-155,1114v-51,273,-308,451,-631,451r-676,0r25,-184v288,-82,401,-217,446,-541r103,-750v28,-193,71,-336,131,-429v60,-93,168,-156,323,-189r0,-12v-206,-49,-299,-146,-299,-381v0,-62,7,-141,21,-238r106,-749v9,-63,13,-115,13,-156","w":1638},"\u00a0":{"w":2679}}});
